<?xml version="1.0"?>
<opencv_storage>
<WinesClassification type_id="opencv-ml-ann-mlp">
  <layer_sizes type_id="opencv-matrix">
    <rows>1</rows>
    <cols>3</cols>
    <dt>i</dt>
    <data>
      11 9 10</data></layer_sizes>
  <activation_function>SIGMOID_SYM</activation_function>
  <f_param1>1.</f_param1>
  <f_param2>1.</f_param2>
  <min_val>-9.4999999999999996e-001</min_val>
  <max_val>9.4999999999999996e-001</max_val>
  <min_val1>-9.7999999999999998e-001</min_val1>
  <max_val1>9.7999999999999998e-001</max_val1>
  <training_params>
    <train_method>BACKPROP</train_method>
    <dw_scale>1.0000000000000001e-001</dw_scale>
    <moment_scale>1.0000000000000001e-001</moment_scale>
    <term_criteria><epsilon>9.9999997473787516e-005</epsilon>
      <iterations>10000</iterations></term_criteria></training_params>
  <input_scale>
    1.2310655694780582e+001 -3.6062179013247269e+000
    9.9777468011869423e+000 -1.9402126637924821e+000
    1.3685347757874450e+001 -2.7482812139901309e+000
    1.2696641295113666e+001 -1.1267992136102003e+000
    1.5671924861210677e+001 -1.7082108561109115e+000
    1.6834839255257187e+001 -1.9525808973836734e+000
    1.0111703038015118e+001 -3.0338625999390292e+000
    1.7231288262513903e+001 -2.3052528421883269e+000
    7.2330870201841613e+000 -3.0870739414819450e+000
    7.5585908909452435e+000 -2.3797820214965282e+000
    5.1060520522305177e+000 -2.0607852616345479e+000</input_scale>
  <output_scale>
    1. 0. 1. 0. 1. 0. 5.2631578947368418e-001 4.9999999999999994e-001
    5.2631578947368418e-001 4.9999999999999994e-001
    5.2631578947368418e-001 4.9999999999999994e-001
    5.2631578947368418e-001 4.9999999999999994e-001
    5.2631578947368418e-001 4.9999999999999994e-001
    5.2631578947368418e-001 4.9999999999999994e-001
    5.2631578947368418e-001 4.9999999999999994e-001</output_scale>
  <inv_output_scale>
    1. 0. 1. 0. 1. 0. 1.8999999999999999e+000 -9.4999999999999996e-001
    1.8999999999999999e+000 -9.4999999999999996e-001
    1.8999999999999999e+000 -9.4999999999999996e-001
    1.8999999999999999e+000 -9.4999999999999996e-001
    1.8999999999999999e+000 -9.4999999999999996e-001
    1.8999999999999999e+000 -9.4999999999999996e-001
    1.8999999999999999e+000 -9.4999999999999996e-001</inv_output_scale>
  <weights>
    <_>
      1.5988125181970514e+002 3.3447577840953402e+000
      9.1556630712613329e-002 -6.3243467944955896e+000
      -4.1896908124269405e+000 4.3045784530464308e+000
      -7.6002960171296854e+000 1.5949492008108699e+000
      -1.6962110321365178e+000 4.8771467735803796e+001
      -4.5087079749543619e+000 -2.4418269922163502e+000
      4.0262997038169628e+000 8.9967431637524982e+000
      5.1577584346569143e+000 5.4446915349927663e+000
      5.5825778945811750e+000 -1.1377821913267308e+000
      1.6744916086261492e+002 2.0132515236508102e+000
      -8.6155269957378722e-001 -4.0660059056106512e-001
      2.6263123692710812e+000 5.7207123291608584e+000
      4.0013286655155450e-001 -3.2808661639065626e+000
      -8.3165886152004695e+000 5.0182288255341763e+002
      3.0554362335230030e+000 5.3296399792043605e+000
      2.1715302443936846e+000 -5.3685313747111403e+000
      9.6573374487657060e-001 4.5771035497159032e+000
      3.2433875255243989e+000 -7.0954274113414839e-001
      1.8548219307133468e+002 -7.4325657630669459e+000
      9.7883922045073535e-001 -5.2584046406866605e-002
      1.2392546735311193e+001 8.7267665530364713e-001
      1.1925917055612169e+001 -2.2963858289865016e+000
      -5.2746707576980771e+000 3.7126116621558475e+002
      8.8377758817071665e+000 7.6274284010384603e+000
      1.0057548437902778e+001 -3.9818513088993952e+000
      -1.5652077449252386e+000 -8.3696842216377965e-001
      3.7697262533163811e+000 1.1236403907696308e+000
      4.7275666546517840e+002 -7.0181936999802987e+000
      3.4801369854024324e+000 -4.2011473656582607e+000
      4.8870482412212795e+000 4.9408863029783534e+000
      4.3356885005516297e+000 -2.2926514530937361e+000
      -6.0863898987479503e-001 5.6997581069353612e+002
      -7.4960293995847413e+000 -7.2331607573098635e+000
      6.9218770499330633e+000 1.2164380183188419e+000
      -6.6463475182802165e+000 6.2713139569801148e+000
      -3.0545920738058294e+000 1.1846793287612465e+000
      -1.4724963239696686e+002 7.4672980427996869e+000
      1.1630846302845315e+000 1.3395133788409324e+000
      3.3135341606608706e+000 3.2089148121223383e+000
      -4.6652656258300579e-001 4.3639113731966743e+000
      -8.2517418010971322e-001 6.7439280182015096e+001
      2.2707261208699983e+000 -5.5765518620582988e-001
      -2.2729799301452136e+000 1.3975267095135075e+000
      -1.3144226654959659e+000 1.5071619014657254e+000
      1.5096568029617417e+000 1.2257651513769765e+000
      -4.8442822703237732e+002 1.0070646667222196e+001
      1.5239747443415410e+000 -6.1381091001043178e+000
      -4.3824286055343791e+000 -1.1824510863448556e+000
      -7.7813943425062728e+000 4.3546803317970948e+000
      -6.8022560939296222e+000 -1.2635632224805549e+002
      3.5368205853459158e+000 1.3167769624240753e+001
      -8.1659893774856602e+000 -4.8458934691699591e+000
      1.8776175714313300e+001 3.9193290934140825e+000
      -1.2392251458111897e+001 -1.5244030826507977e+001</_>
    <_>
      -1.0232042705445533e-017 4.2357879768791986e-018
      -4.2848988799920403e-018 3.6484512913463024e-001
      -1.8621006201392018e-001 -1.0944793779193694e-001
      -4.4081015023860096e-002 -3.4252794984292673e-001
      4.9289911052616059e-001 -1.8671576035456001e-003
      -1.0953689034052017e-017 1.2896555966505198e-017
      -1.2447988097857610e-017 1.4562717738878217e-001
      -5.3967950828262057e-001 -7.2493199784996154e-001
      6.1534078373300516e-001 4.1642533050120950e-001
      1.4998061164125390e-001 -5.7431859508327038e-003
      4.6829946307807721e-018 -2.2227016042700403e-018
      5.6393389040248380e-018 -3.7121784353705145e-001
      -1.1424354513515829e+000 -8.0107190071997203e-001
      5.8336671494156578e-001 1.6940618298334722e+000
      3.8670311194546525e-001 1.5323330079681147e-002
      3.4966030409712202e-018 -3.7950976901219135e-018
      4.8055766113600412e-018 -1.8590851621915448e-002
      2.0532485653880408e-002 7.6157846571296917e-001
      -5.4413240419651987e-001 -3.6429782874587324e-001
      9.2924960953457991e-001 -1.6843393091534389e-002
      -9.1424344064379682e-018 6.1991977488734512e-018
      -1.0158330270499537e-017 -1.1972771994197044e-001
      1.7436356271491046e-001 4.5462114730229869e-001
      -3.4160231191344002e-002 -6.4471214932635623e-001
      3.3318715755640177e-001 -2.3781220699872176e-002
      3.4255166509737367e-017 -2.9733479189699939e-017
      3.1906500500171228e-017 7.7749094233334842e-002
      1.2725910635160653e+000 2.9393281028034917e+000
      -2.5712506051253694e+000 7.2551048678424324e-001
      -4.7547320565446693e-001 -8.3436537280494188e-002
      9.5835152134698272e-018 -1.1442932596633180e-017
      1.6844168402127799e-017 -5.8726561163161307e-002
      -9.8022855378057772e-002 -8.2297909888370546e-001
      1.0169591207043420e+000 -3.4982777562486178e-001
      -1.3803734680947333e+000 -1.5523624066687039e-002
      -4.0228944827878693e-018 2.3767671457255311e-018
      -2.6259844955210280e-018 2.8542018143018044e-001
      7.3870263663363056e-001 -1.2948573939384420e+000
      -8.5060182062718848e-001 1.1358023126664727e+000
      3.8682427642371514e-001 1.1060009458212831e-001
      -8.0975432297108237e-018 8.5744616597826928e-018
      -7.1840500909364877e-018 3.1883518379379527e-001
      -6.0906167093019006e-002 1.4108314413890930e+000
      -6.1383679753608200e-001 -6.9612956075439769e-001
      -8.9010190599575811e-001 -3.1076481012033710e-002
      -2.5797161812761985e-017 2.7071648246801545e-017
      -2.8716063686351234e-017 -2.9492632953994313e+000
      -3.2104611562446190e+000 -3.4197070968345038e+000
      2.4971185630330767e-001 -4.3760236928394800e+000
      -3.5491947546340712e+000 -3.5099641987399131e+000</_></weights></WinesClassification>
</opencv_storage>
