<?xml version="1.0"?>
<opencv_storage>
<WinesClassification type_id="opencv-ml-ann-mlp">
  <layer_sizes type_id="opencv-matrix">
    <rows>1</rows>
    <cols>3</cols>
    <dt>i</dt>
    <data>
      11 9 10</data></layer_sizes>
  <activation_function>SIGMOID_SYM</activation_function>
  <f_param1>1.</f_param1>
  <f_param2>1.</f_param2>
  <min_val>-9.4999999999999996e-001</min_val>
  <max_val>9.4999999999999996e-001</max_val>
  <min_val1>-9.7999999999999998e-001</min_val1>
  <max_val1>9.7999999999999998e-001</max_val1>
  <training_params>
    <train_method>BACKPROP</train_method>
    <dw_scale>1.0000000000000001e-001</dw_scale>
    <moment_scale>1.0000000000000001e-001</moment_scale>
    <term_criteria><epsilon>9.9999997473787516e-005</epsilon>
      <iterations>10000</iterations></term_criteria></training_params>
  <input_scale>
    1.2431643438375191e+001 -3.6423190652657320e+000
    1.0255385812649445e+001 -1.9829195974152660e+000
    1.3748348127064522e+001 -2.7620246994191353e+000
    1.2874945633671178e+001 -1.1438915965088685e+000
    1.5072933375570036e+001 -1.6526569592323381e+000
    1.6809024682772911e+001 -1.9445055492962151e+000
    1.0054049204150575e+001 -3.0081546232504683e+000
    1.7494544148879786e+001 -2.3410872868695587e+000
    7.3467971247622410e+000 -3.1290533563424510e+000
    7.6771356833378812e+000 -2.3980034109389754e+000
    5.1062974955623899e+000 -2.0503953730412516e+000</input_scale>
  <output_scale>
    1. 0. 1. 0. 1. 0. 5.2631578947368418e-001 4.9999999999999994e-001
    5.2631578947368418e-001 4.9999999999999994e-001
    5.2631578947368418e-001 4.9999999999999994e-001
    5.2631578947368418e-001 4.9999999999999994e-001
    5.2631578947368418e-001 4.9999999999999994e-001
    5.2631578947368418e-001 4.9999999999999994e-001
    5.2631578947368418e-001 4.9999999999999994e-001</output_scale>
  <inv_output_scale>
    1. 0. 1. 0. 1. 0. 1.8999999999999999e+000 -9.4999999999999996e-001
    1.8999999999999999e+000 -9.4999999999999996e-001
    1.8999999999999999e+000 -9.4999999999999996e-001
    1.8999999999999999e+000 -9.4999999999999996e-001
    1.8999999999999999e+000 -9.4999999999999996e-001
    1.8999999999999999e+000 -9.4999999999999996e-001
    1.8999999999999999e+000 -9.4999999999999996e-001</inv_output_scale>
  <weights>
    <_>
      3.6697110410457590e+001 6.9378078026974366e-001
      -2.1304198982675313e+000 -1.8600988728350882e+000
      -4.8969944016578308e+000 -1.1617101296922354e+000
      -3.1059921319733363e+000 5.8560959190326844e-001
      1.7573245351495154e-001 3.7130406599862333e+001
      -1.5525679483418606e+000 -4.3517805377322238e+000
      6.1164360742159773e-001 3.6526612850558249e+000
      -2.0987380448528178e-001 6.5147392157186190e-001
      3.6032243338202661e+000 1.0339603085222829e-001
      5.8156443670188082e+001 1.1892995061640581e+000
      8.9046517915597345e-001 1.1258432496866475e+000
      9.6718375240141297e-001 -1.2107858582712820e+000
      1.0933703988040773e+000 -1.4417809585925820e+000
      -3.6198423884674136e+000 9.8706079486412435e+001
      2.4812124830825750e+000 2.1188390227584635e+000
      3.6879315098952192e-001 -5.0255010611786177e-001
      1.3359538317150602e-001 2.5278322008693777e+000
      2.3496074998905723e+000 -8.8451424842195248e-001
      7.0347924947432688e+001 -1.3535919505022870e-001
      -2.8921753489285001e-001 3.0510128058956414e+000
      2.9345245962781297e+000 -1.2807731509689744e+000
      3.9776983370032432e-001 -1.5403395202270806e+000
      -2.1610990574122337e+000 7.1539546981022269e+001
      2.7994202557226169e+000 2.5480169424770112e+000
      8.1384887098998404e-001 2.8002287862782502e+000
      1.5077824364907380e+000 2.9471644447661234e+000
      2.5501585125898170e+000 1.0574574236609768e+000
      9.1690614721505852e+001 -1.7105587304649243e+000
      1.2400902628693820e+000 3.8812193050003874e-001
      -1.1747226009373064e+000 3.7783495420088425e-001
      5.3061392853009337e-001 -1.3180286886814743e+000
      9.4950166408595216e-001 1.2196098663798554e+002
      -2.8537251610959053e+000 -1.0967518197174042e+000
      9.9862664944117951e-001 1.2790592225722259e+000
      4.4123292267387915e-001 4.0233500696288110e-001
      -2.6235289852130110e+000 -8.3067297578725807e-001
      -3.6522670981552679e+001 2.5269781647284231e+000
      1.9451742372129170e+000 -1.5846542822892684e-001
      5.0099356885941126e-001 7.6531973574999068e-001
      -1.3169192363402520e+000 2.6532452580794206e+000
      -3.0672219720173692e-002 -4.9344852697931101e+000
      3.2132722574714184e-001 -1.4744429595955533e+000
      -5.0791698381082351e-001 -8.4163348863883647e-001
      -1.3597973422291183e+000 1.6203178765255184e+000
      1.5995867430572115e+000 4.1334431718583931e-001
      -9.8739401435340184e+001 6.0735219651212784e+000
      3.8681490633504776e+000 -4.9567221958234784e+000
      -3.8197277941410182e+000 -1.6435348515559003e+000
      -4.4113924571056318e+000 2.1115414953819092e+000
      -2.7174625343593051e+000 -2.0508506813416066e+001
      -1.2998887407040272e+000 8.4394279837382022e+000
      -6.1360628249777527e+000 -2.6353512594857968e+000
      6.7134599477459842e+000 2.2668235225949012e+000
      -7.9375067365712972e+000 -8.6164219186562647e+000</_>
    <_>
      -1.2120602557395108e-007 4.0560249162429027e-008
      -9.0598739078056054e-008 3.9392026427062343e-001
      -2.8605863780526933e-002 -2.5403576868981087e-001
      5.3274900671490433e-001 -4.3016812082375933e-001
      5.2286537092180181e-002 1.0744425351859700e-002
      -1.4314643909263333e-007 4.7902364672213637e-008
      -1.0699869765143950e-007 6.6183177549171490e-001
      -1.0609053212289321e+000 -8.2736544283081803e-001
      5.8306638424070922e-001 5.6097681748443051e-001
      4.2477093800470483e-001 -2.6598222053658870e-002
      1.7338961031317225e-008 -5.8022905839246849e-009
      1.2960477835929687e-008 -1.0553126880660767e-001
      -3.6267109727101088e-001 -4.5831877609029631e-001
      7.1191666299798095e-001 5.0165904630840363e-001
      3.3576507957554111e-002 6.8421931964423116e-002
      -4.0303851520976411e-007 1.3487235905265432e-007
      -3.0126209569662506e-007 5.6393499032819960e-001
      7.1857759779851360e-001 5.4903527478659575e-001
      -1.1407417445065828e+000 1.2129058880542736e+000
      2.5634405026376716e-001 9.9986276680724379e-002
      4.0052198096341355e-007 -1.3403022883073074e-007
      2.9938104376380550e-007 -4.0021666640053666e-001
      5.4975514669131120e-001 7.3546033103153563e-001
      -2.1721154711759422e-001 -1.1826611761614489e+000
      -1.0009148028019153e-001 -1.1085924032708100e-001
      1.5413651367134966e-006 -5.1580070949687580e-007
      1.1521352768422944e-006 -4.2040812500589481e-001
      -4.8784836520436231e-001 8.8504291505529270e-002
      -6.4617408792639131e-001 1.1782647285814756e+000
      7.9310731157248057e-002 -6.1472154576243532e-001
      -1.3085034484315008e-007 4.3787613388683336e-008
      -9.7807647713636337e-008 -6.5184106207873708e-003
      -1.5137972216881213e+000 -4.3857544834160289e-001
      4.8267779495198260e-001 4.2509677861875939e-001
      -4.6969524765988480e-002 -5.0966466509490514e-002
      -2.0950109011954150e-007 7.0107211048931973e-008
      -1.5659728555811529e-007 2.8753847665055549e-001
      5.7724690232047049e-001 -1.4773614021984502e+000
      -8.6033843443551905e-001 1.2848760682310911e+000
      3.4270116861665684e-001 1.5565998579069290e-001
      -2.3817410316920889e-006 7.9702316141993046e-007
      -1.7802970871249164e-006 9.8582516311534718e-001
      2.0396805749126934e-001 9.4693219409665375e-001
      -6.2877314125721373e-001 -9.6482688199985212e-001
      9.6194710020356872e-002 5.0111637821044541e-001
      -4.1455923710896179e-006 1.3872764055573270e-006
      -3.0987357249702297e-006 -2.1451880365573892e+000
      -2.1832844352014940e+000 -1.1105581740116608e+000
      -1.9864894625225622e+000 -3.3889783920035677e+000
      -2.7658094609122217e+000 -2.6088130182643745e+000</_></weights></WinesClassification>
</opencv_storage>
