<?xml version="1.0"?>
<opencv_storage>
<WinesClassification type_id="opencv-ml-ann-mlp">
  <layer_sizes type_id="opencv-matrix">
    <rows>1</rows>
    <cols>3</cols>
    <dt>i</dt>
    <data>
      11 9 10</data></layer_sizes>
  <activation_function>SIGMOID_SYM</activation_function>
  <f_param1>1.</f_param1>
  <f_param2>1.</f_param2>
  <min_val>-9.4999999999999996e-001</min_val>
  <max_val>9.4999999999999996e-001</max_val>
  <min_val1>-9.7999999999999998e-001</min_val1>
  <max_val1>9.7999999999999998e-001</max_val1>
  <training_params>
    <train_method>BACKPROP</train_method>
    <dw_scale>1.0000000000000001e-001</dw_scale>
    <moment_scale>1.0000000000000001e-001</moment_scale>
    <term_criteria><epsilon>9.9999997473787516e-005</epsilon>
      <iterations>10000</iterations></term_criteria></training_params>
  <input_scale>
    1.2165762516110592e+001 -3.5629847529960457e+000
    1.0036557001166594e+001 -1.9546499413890752e+000
    1.3515874460895866e+001 -2.7092057880649576e+000
    1.2833532857904070e+001 -1.1351133185346738e+000
    1.5057496327675249e+001 -1.6399654045472691e+000
    1.6736062823038147e+001 -1.9355914002447216e+000
    1.0225414960227754e+001 -3.0562849113297887e+000
    1.7159117786800003e+001 -2.2794333732387155e+000
    7.2797667134812984e+000 -3.1130426280034071e+000
    7.6725898823975260e+000 -2.3992912206029495e+000
    5.0331446875543886e+000 -2.0572752710487561e+000</input_scale>
  <output_scale>
    1. 0. 1. 0. 1. 0. 5.2631578947368418e-001 4.9999999999999994e-001
    5.2631578947368418e-001 4.9999999999999994e-001
    5.2631578947368418e-001 4.9999999999999994e-001
    5.2631578947368418e-001 4.9999999999999994e-001
    5.2631578947368418e-001 4.9999999999999994e-001
    5.2631578947368418e-001 4.9999999999999994e-001
    5.2631578947368418e-001 4.9999999999999994e-001</output_scale>
  <inv_output_scale>
    1. 0. 1. 0. 1. 0. 1.8999999999999999e+000 -9.4999999999999996e-001
    1.8999999999999999e+000 -9.4999999999999996e-001
    1.8999999999999999e+000 -9.4999999999999996e-001
    1.8999999999999999e+000 -9.4999999999999996e-001
    1.8999999999999999e+000 -9.4999999999999996e-001
    1.8999999999999999e+000 -9.4999999999999996e-001
    1.8999999999999999e+000 -9.4999999999999996e-001</inv_output_scale>
  <weights>
    <_>
      1.1125533969942726e+003 1.1546042240941190e-001
      5.5052090933459907e-001 1.4375971501455087e+000
      -1.2543723880655454e+001 -2.2423260112436250e+000
      -8.6584806047092258e+000 1.0580498578932000e+001
      -3.2623646651897591e+000 5.2793232257452189e+002
      -2.3217553902880688e+001 -2.0290031038980874e+000
      6.9958105767265302e+000 1.0100879621598597e+001
      1.0487729214567485e+000 2.4204115011693541e+000
      5.0375295943798948e+000 -3.8902341194075607e+000
      8.6316247065633183e+002 3.6744022204577609e-001
      9.1242915696184834e-001 -8.8373881811892954e+000
      -2.7218274066405921e+000 4.3355935852421918e+000
      -5.3707597578919053e+000 -4.9450552183277088e+000
      8.8046514186849603e+000 1.7194782959813515e+003
      2.9690579762644580e+000 9.6451956506551486e+000
      -1.0294735286838691e+001 3.7301359087366164e+000
      -4.6642786354129182e+000 4.0014981556662716e+000
      1.0551756779734554e+001 8.0739935541915075e-001
      7.6045701362063312e+002 -1.0637791430926223e+001
      -4.2538371420079191e-001 -8.3488156536330371e-001
      1.4179488466668481e+001 -3.2604620368887196e+000
      -2.4812332181502145e-001 -1.0874556643247464e+001
      5.7843882097552246e-001 1.6424052699627453e+003
      2.0979785011058585e-001 1.1646493008865079e+001
      6.0601453622790231e+000 3.7351689490347582e+000
      -1.6625960276818695e+001 6.7832832622236898e+000
      6.6178203439229550e+000 7.0638557084946685e+000
      2.4945795414296240e+003 -1.7336160975577183e-001
      1.0430843257395115e+000 4.1549522004820370e+000
      1.5366205249231349e+001 1.6091433313875942e+001
      1.7263599818345053e+001 -6.6288704219535566e+000
      2.5952265008528155e+000 2.1670884330573631e+003
      7.0736422204946034e+000 -1.2009531966485818e+001
      2.0389343772901672e+001 1.9419702341745694e+001
      -5.0734036326910994e+000 1.8182032597726298e+001
      -1.2549613297591952e+001 -8.1592095001714728e+000
      -7.6624973237539984e+002 -5.5372097911558429e+000
      1.8621627383309067e+000 -9.9669444426229887e+000
      -4.6597624027089717e+000 8.8634486174582783e-001
      -5.7346181082051713e+000 9.9809422884172285e+000
      4.9624043385550914e-001 1.5816650233527130e+002
      1.3390582283547932e+000 1.2958369873520239e+000
      -5.4274509782183653e+000 -2.4308032986885268e+000
      6.8930361382260292e+000 -1.0969802261352077e+001
      2.6040818424261949e+000 6.5917190516053399e+000
      -1.6741788431555888e+003 3.1772479778321792e+001
      -5.3221929759056741e-001 -1.0598811950258751e+001
      -1.3767614363359032e+001 -2.9336432675888591e+000
      -7.0013819203570868e+000 5.1481286946115947e+000
      -7.2953092569313247e+000 -4.5924178246563133e+002
      1.3081338645106820e+001 1.6969973276738010e+001
      -9.7379468805837881e+000 1.2275757639229147e+001
      2.4270400281456354e+001 5.5504548915386587e-001
      -2.2860218752613289e+001 -2.9063102744509393e+001</_>
    <_>
      1.2047794040516791e-018 -2.7362048420081892e-019
      4.0353081797756768e-018 4.9399372667395774e-001
      1.5882991821531067e-001 -1.1555138234054695e-001
      7.8392367089585316e-002 1.1873934024606871e-002
      1.7512665885470807e-001 8.3950207794527887e-002
      -4.5701490284146666e-018 1.0741655342317413e-018
      -1.0768030870183761e-018 -6.4362260289633068e-004
      -2.2116118444408153e-001 -1.1879754639793623e+000
      1.1398287593826175e+000 4.7173615924486523e-001
      -4.8842747673597905e-002 -7.7593093378571952e-003
      2.9774421495642867e-017 -2.8388601224657082e-017
      2.7088532956169273e-017 -2.5431697625190824e-001
      -1.0785670851357456e+000 -6.6768526518544513e-001
      1.1885705610502497e+000 1.1852384446037791e+000
      3.1576975904339505e-001 1.5620873400578064e-002
      3.0117839344957943e-018 8.9963822393751810e-019
      -3.1334325883344807e-018 3.5625670644511992e-001
      -2.2230431876807419e-001 1.0143231714493224e+000
      -7.1145272035813112e-001 5.7680097708150274e-002
      -5.0946621770140488e-001 -2.1494562964311265e-002
      9.4058670855097912e-018 -9.3832420450597925e-018
      9.6545298895152228e-018 5.0969215804455653e-002
      -1.9261762678029395e-001 -4.2918343516038598e-001
      8.4925519740075162e-001 -9.1411661518621523e-001
      -6.8173403406804445e-001 -3.3074493248305248e-002
      9.0505850693934282e-018 -9.2174882816262014e-018
      1.0113970966015005e-017 -2.8439093642911101e-001
      -3.7431356853168202e-001 9.2537175113639802e-001
      -8.8849297768693780e-001 1.4770407832454542e+000
      1.3851088860504868e-002 -6.3708819987129364e-002
      -7.7106637190374796e-018 1.0309088283940496e-017
      -9.5001999670985542e-018 1.0269767253166572e-001
      1.6269722008769477e-001 2.6178609270487502e-001
      -1.1286980799385224e+000 1.1004607421562209e+000
      4.9936096242047195e-001 -3.7243595066834341e-002
      -4.2257518369238362e-018 3.5906325837542701e-018
      -9.9411573093628605e-018 7.8112842472345612e-001
      5.4522155283771745e-001 -7.2674372682286614e-001
      -1.0061939109122049e+000 9.9826555474088119e-001
      4.0792446460875581e-001 1.6518663365741962e-001
      -2.8117325949157271e-017 2.6344911275178995e-017
      -2.1447303216579655e-017 5.4196834363067037e-001
      2.5159164858015920e-001 5.7941985847331556e-001
      -9.8951586938068703e-001 7.9474804211509842e-001
      -9.6865147405848312e-002 -4.6818547077051340e-002
      -4.2965883313037409e-017 4.1125172979888330e-017
      -3.8057306609540134e-017 -2.2998592053545384e+000
      -1.8005373577670172e+000 -7.7718841788189275e-001
      -1.7594115991556623e+000 -3.8491658721427990e+000
      -2.9700279043084934e+000 -3.5071903547812511e+000</_></weights></WinesClassification>
</opencv_storage>
