<?xml version="1.0"?>
<opencv_storage>
<WinesClassification type_id="opencv-ml-ann-mlp">
  <layer_sizes type_id="opencv-matrix">
    <rows>1</rows>
    <cols>3</cols>
    <dt>i</dt>
    <data>
      11 9 10</data></layer_sizes>
  <activation_function>SIGMOID_SYM</activation_function>
  <f_param1>1.</f_param1>
  <f_param2>1.</f_param2>
  <min_val>-9.4999999999999996e-001</min_val>
  <max_val>9.4999999999999996e-001</max_val>
  <min_val1>-9.7999999999999998e-001</min_val1>
  <max_val1>9.7999999999999998e-001</max_val1>
  <training_params>
    <train_method>BACKPROP</train_method>
    <dw_scale>1.0000000000000001e-001</dw_scale>
    <moment_scale>1.0000000000000001e-001</moment_scale>
    <term_criteria><epsilon>9.9999997473787516e-005</epsilon>
      <iterations>10000</iterations></term_criteria></training_params>
  <input_scale>
    1.2595579776797663e+001 -3.6816624250611749e+000
    9.9362385044960178e+000 -1.9494619095694439e+000
    1.3547720650074259e+001 -2.7250965096306126e+000
    1.2836712079970326e+001 -1.1355363557810740e+000
    1.5903780923331087e+001 -1.7346834832528444e+000
    1.7002684638277696e+001 -1.9534781547367988e+000
    1.0228000044552850e+001 -3.0492370757657996e+000
    1.7313010409256439e+001 -2.2943655707961264e+000
    7.2952292053467795e+000 -3.1038168633602314e+000
    7.4751618885873761e+000 -2.3436023352275726e+000
    5.0236716371646724e+000 -2.0501342731124264e+000</input_scale>
  <output_scale>
    1. 0. 1. 0. 1. 0. 5.2631578947368418e-001 4.9999999999999994e-001
    5.2631578947368418e-001 4.9999999999999994e-001
    5.2631578947368418e-001 4.9999999999999994e-001
    5.2631578947368418e-001 4.9999999999999994e-001
    5.2631578947368418e-001 4.9999999999999994e-001
    5.2631578947368418e-001 4.9999999999999994e-001
    5.2631578947368418e-001 4.9999999999999994e-001</output_scale>
  <inv_output_scale>
    1. 0. 1. 0. 1. 0. 1.8999999999999999e+000 -9.4999999999999996e-001
    1.8999999999999999e+000 -9.4999999999999996e-001
    1.8999999999999999e+000 -9.4999999999999996e-001
    1.8999999999999999e+000 -9.4999999999999996e-001
    1.8999999999999999e+000 -9.4999999999999996e-001
    1.8999999999999999e+000 -9.4999999999999996e-001
    1.8999999999999999e+000 -9.4999999999999996e-001</inv_output_scale>
  <weights>
    <_>
      1.9566790459754753e+002 2.8837625253972003e+000
      -1.7639112178085008e+000 7.5834265465499595e-001
      -7.0489280201053575e+000 1.6418885461436905e+000
      3.5426873227790590e+000 -1.5840349475523579e+000
      -3.5776039008382416e+000 1.4061059959104276e+002
      -9.2117805333450082e+000 -5.7483162479010428e+000
      2.2988976751769030e+000 7.2539027723856089e+000
      7.6730687441584742e+000 -4.5122218924942805e+000
      7.7586964170582071e+000 -6.6098015383507480e-001
      2.3163165893580364e+002 -1.0325280796195155e-001
      -7.8915189034803546e-001 5.8004296017421542e-001
      -2.4322014775352221e+000 4.0560771922494041e+000
      2.8863639570659929e+000 -4.2889130404613027e+000
      -7.0351202095562906e+000 7.1878951401135578e+002
      -2.5250804209644135e+000 6.2455015582673514e+000
      1.2738153175101184e+001 1.0518288638988924e+001
      -1.6626742331476594e+000 9.1973180077474801e+000
      3.1539652482111418e+000 2.9425786719765057e+000
      4.0183367449660767e+002 -1.4457685855460880e+001
      -4.5525406467642797e-002 -1.3487195001665986e+000
      8.8493711967921929e+000 2.6121958808056228e-001
      -9.7971161112630494e+000 -6.5094711840631958e-001
      -2.7317794902835559e+000 3.5607680559570883e+002
      2.2939013876020096e+000 8.6040818406995516e+000
      3.6926117157420282e+000 2.2431904668150107e-001
      -2.8140527868489613e+000 5.2275624195894324e+000
      4.4917510089881878e+000 8.3160100952466518e+000
      5.2015859693011589e+002 -6.7229699585808813e+000
      4.1909294691586290e+000 8.2781726280445778e+000
      6.0308359658972295e+000 -5.8331750066612842e-001
      -2.7038012528257589e+000 -3.1811230445917564e+000
      -2.8358310608536441e+000 6.4315087487952906e+002
      6.0426102142673859e+000 -9.2811153390965444e+000
      4.3546859361843113e+000 3.1239056433691252e+000
      -1.9043944705548905e+000 -8.0899214468443184e+000
      1.0201845712644624e+000 8.3561335062286390e-001
      -4.2072328625496067e+002 3.3510538628121136e+000
      1.1820091115510842e+000 -7.9406443450800426e+000
      -5.0466300843958809e+000 5.0901145806981338e+000
      4.8445538572514053e+000 2.1828675139018507e+000
      2.4407711913140813e+000 -1.6192216958175138e+002
      1.6272517304472551e+000 -7.2023521030871318e-001
      -1.6434906746312627e-001 3.3558566851207625e+000
      5.0900849736858633e-001 1.6825061204299363e+000
      1.7427286703767877e+000 -1.0116125045681275e+000
      -3.7054725133103778e+002 1.3854734055463814e+001
      2.9469093311447061e+000 -9.7042501174093179e+000
      -5.5008073042971786e+000 2.7087859017606188e+000
      5.6477590841512422e+000 8.1185136446683828e+000
      -6.2961087783307716e+000 -2.1055504432004588e+002
      9.5033539536416232e+000 1.3278932640626897e+001
      -3.6801606171842787e+000 1.7485746443030032e+000
      1.8837343764904070e+001 -6.0426288177459266e+000
      -1.4450826472290538e+001 -1.4283969092030457e+001</_>
    <_>
      1.1365799408509922e-018 -3.7377437487352050e-019
      1.0581673600543234e-018 2.1334792522632859e-002
      -2.0470087697737291e-001 -7.2970865958351630e-002
      1.6233941723318246e-001 -4.3941493470780946e-001
      5.9644800794932451e-001 4.3055225363974421e-003
      5.6024908080388999e-018 -5.2741447707418260e-018
      1.3308934920611647e-018 -6.7320181306366925e-002
      -4.2357878693644346e-001 -5.6796110502466268e-001
      4.6706047264312006e-001 -3.6324254173233546e-002
      -3.0497256320954907e-001 -3.1659975344361805e-003
      1.7770399037033243e-017 -2.2887113777079893e-017
      1.6221295757680120e-017 -3.2801800639036455e-002
      -7.3145836230646444e-001 -1.1062558953572232e+000
      1.0613754029834839e+000 1.0001525577330903e+000
      2.0715458250021895e-001 -2.2412484970182174e-002
      7.8955049539211307e-018 -1.3104275912867244e-017
      1.2202625966860671e-017 5.6249624386639337e-002
      -5.3119575264295227e-001 7.6124219638849022e-001
      -6.8634154885373100e-001 6.5795955453593413e-001
      -2.8234899858832646e-001 5.7906807085282549e-002
      8.0191060709038822e-018 -1.1599041967891368e-017
      8.4644379729996433e-018 -2.6063879548208171e-002
      -1.6688272819744543e-001 -9.1830415068058402e-001
      9.8102184653129354e-001 -5.2983868560929370e-001
      -5.5134137789550830e-001 -7.5117098762401635e-002
      3.7203955396210821e-017 -3.7341463632372200e-017
      3.8651830620196096e-017 -6.9202050473693211e-002
      -3.7745007337061875e-001 1.6374818421041322e+000
      -3.8830819607010925e-001 -1.4686684625776198e+000
      -6.1606319509674401e-001 1.1287491152464494e-002
      -1.0594830353277675e-018 -1.3888975120146012e-018
      -5.9398872957078503e-018 7.0643954329395908e-002
      -1.1117766780845511e+000 -6.7401805345935262e-001
      5.3079750041527034e-002 6.2843174755026310e-001
      2.5356763536435817e-001 5.5313478001171500e-002
      -1.1003947328689781e-017 1.0896650473437203e-017
      -9.4953872464237083e-018 5.3156535653232223e-002
      1.1152037087523854e+000 -1.0743250754829250e+000
      -8.9952082692617052e-001 8.1565275508604551e-001
      4.2083110545174790e-001 2.9895957080620272e-002
      -2.4609387785312035e-018 -3.8051305699991366e-019
      -4.7965576592695757e-018 -6.5544211952654804e-003
      -2.2253486413186818e-001 9.0113266737934683e-001
      -3.8485968436517604e-001 -1.7833070458377431e+000
      2.0054219905870357e-001 -1.9826435947245445e-002
      -4.0325375842922888e-017 3.9186181767281585e-017
      -3.9307572822452180e-017 -3.3617182130424439e+000
      -3.1412620305296324e+000 -2.0483717629737450e+000
      -1.4975138692318606e+000 -2.0697005120667349e+000
      -2.3047881086109245e+000 -3.5762956762807456e+000</_></weights></WinesClassification>
</opencv_storage>
